<?xml version="1.0"?>
<opencv_storage>
<cascade>
  <stageType>BOOST</stageType>
  <featureType>HAAR</featureType>
  <height>24</height>
  <width>24</width>
  <stageParams>
    <boostType>GAB</boostType>
    <minHitRate>9.9500000476837158e-01</minHitRate>
    <maxFalseAlarm>5.0000000000000000e-01</maxFalseAlarm>
    <weightTrimRate>9.4999999999999996e-01</weightTrimRate>
    <maxDepth>1</maxDepth>
    <maxWeakCount>100</maxWeakCount></stageParams>
  <featureParams>
    <maxCatCount>0</maxCatCount>
    <featSize>1</featSize>
    <mode>BASIC</mode></featureParams>
  <stageNum>6</stageNum>
  <stages>
    <!-- stage 0 -->
    <_>
      <maxWeakCount>2</maxWeakCount>
      <stageThreshold>-6.7365509271621704e-01</stageThreshold>
      <weakClassifiers>
        <_>
          <internalNodes>
            0 -1 6 2.7741540223360062e-02</internalNodes>
          <leafValues>
            -9.9588054418563843e-01 3.0337077379226685e-01</leafValues></_>
        <_>
          <internalNodes>
            0 -1 15 5.9800118207931519e-02</internalNodes>
          <leafValues>
            -9.7702592611312866e-01 4.0130677819252014e-01</leafValues></_></weakClassifiers></_>
    <!-- stage 1 -->
    <_>
      <maxWeakCount>2</maxWeakCount>
      <stageThreshold>-5.5975687503814697e-01</stageThreshold>
      <weakClassifiers>
        <_>
          <internalNodes>
            0 -1 1 -1.0564194619655609e-01</internalNodes>
          <leafValues>
            6.4705884456634521e-01 -9.9193549156188965e-01</leafValues></_>
        <_>
          <internalNodes>
            0 -1 2 -5.2208539098501205e-02</internalNodes>
          <leafValues>
            4.3217858672142029e-01 -9.6445006132125854e-01</leafValues></_></weakClassifiers></_>
    <!-- stage 2 -->
    <_>
      <maxWeakCount>3</maxWeakCount>
      <stageThreshold>-1.6144477128982544e+00</stageThreshold>
      <weakClassifiers>
        <_>
          <internalNodes>
            0 -1 8 -1.1736439913511276e-01</internalNodes>
          <leafValues>
            1.2048192322254181e-02 -9.6315252780914307e-01</leafValues></_>
        <_>
          <internalNodes>
            0 -1 12 1.8263880908489227e-01</internalNodes>
          <leafValues>
            -9.6580672264099121e-01 2.4971935153007507e-01</leafValues></_>
        <_>
          <internalNodes>
            0 -1 11 4.4517368078231812e-02</internalNodes>
          <leafValues>
            -9.0101450681686401e-01 4.3431273102760315e-01</leafValues></_></weakClassifiers></_>
    <!-- stage 3 -->
    <_>
      <maxWeakCount>3</maxWeakCount>
      <stageThreshold>-1.4114778041839600e+00</stageThreshold>
      <weakClassifiers>
        <_>
          <internalNodes>
            0 -1 14 -8.2717344164848328e-02</internalNodes>
          <leafValues>
            6.6666668653488159e-01 -9.3203884363174438e-01</leafValues></_>
        <_>
          <internalNodes>
            0 -1 9 -1.5787336975336075e-02</internalNodes>
          <leafValues>
            5.3170102834701538e-01 -8.7845224142074585e-01</leafValues></_>
        <_>
          <internalNodes>
            0 -1 7 -4.2824208736419678e-02</internalNodes>
          <leafValues>
            3.9901328086853027e-01 -9.7282475233078003e-01</leafValues></_></weakClassifiers></_>
    <!-- stage 4 -->
    <_>
      <maxWeakCount>3</maxWeakCount>
      <stageThreshold>-1.8094129562377930e+00</stageThreshold>
      <weakClassifiers>
        <_>
          <internalNodes>
            0 -1 5 3.5323992371559143e-02</internalNodes>
          <leafValues>
            -9.9546486139297485e-01 -3.4831461310386658e-01</leafValues></_>
        <_>
          <internalNodes>
            0 -1 4 3.4171126782894135e-02</internalNodes>
          <leafValues>
            -9.6742063760757446e-01 -5.5835489183664322e-03</leafValues></_>
        <_>
          <internalNodes>
            0 -1 10 -8.4341460024006665e-05</internalNodes>
          <leafValues>
            -9.5949631929397583e-01 1.5347249805927277e-01</leafValues></_></weakClassifiers></_>
    <!-- stage 5 -->
    <_>
      <maxWeakCount>4</maxWeakCount>
      <stageThreshold>-2.3007349967956543e+00</stageThreshold>
      <weakClassifiers>
        <_>
          <internalNodes>
            0 -1 0 -2.6515337824821472e-01</internalNodes>
          <leafValues>
            6.3636362552642822e-01 -9.1907513141632080e-01</leafValues></_>
        <_>
          <internalNodes>
            0 -1 3 3.4047007560729980e-02</internalNodes>
          <leafValues>
            -9.5704090595245361e-01 1.9344326108694077e-02</leafValues></_>
        <_>
          <internalNodes>
            0 -1 16 2.7133133262395859e-02</internalNodes>
          <leafValues>
            -7.3912012577056885e-01 3.4802019596099854e-01</leafValues></_>
        <_>
          <internalNodes>
            0 -1 13 -7.9785976558923721e-03</internalNodes>
          <leafValues>
            4.7182765603065491e-01 -7.7263915538787842e-01</leafValues></_></weakClassifiers></_></stages>
  <features>
    <_>
      <rects>
        <_>
          0 3 6 19 -1.</_>
        <_>
          3 3 3 19 2.</_></rects>
      <tilted>0</tilted></_>
    <_>
      <rects>
        <_>
          0 3 12 16 -1.</_>
        <_>
          6 3 6 16 2.</_></rects>
      <tilted>0</tilted></_>
    <_>
      <rects>
        <_>
          0 5 6 16 -1.</_>
        <_>
          3 5 3 16 2.</_></rects>
      <tilted>0</tilted></_>
    <_>
      <rects>
        <_>
          1 16 10 8 -1.</_>
        <_>
          1 20 10 4 2.</_></rects>
      <tilted>0</tilted></_>
    <_>
      <rects>
        <_>
          1 18 12 6 -1.</_>
        <_>
          1 21 12 3 2.</_></rects>
      <tilted>0</tilted></_>
    <_>
      <rects>
        <_>
          2 18 11 6 -1.</_>
        <_>
          2 21 11 3 2.</_></rects>
      <tilted>0</tilted></_>
    <_>
      <rects>
        <_>
          6 20 11 4 -1.</_>
        <_>
          6 22 11 2 2.</_></rects>
      <tilted>0</tilted></_>
    <_>
      <rects>
        <_>
          9 0 6 20 -1.</_>
        <_>
          9 10 6 10 2.</_></rects>
      <tilted>0</tilted></_>
    <_>
      <rects>
        <_>
          9 9 11 15 -1.</_>
        <_>
          9 14 11 5 3.</_></rects>
      <tilted>0</tilted></_>
    <_>
      <rects>
        <_>
          10 0 8 4 -1.</_>
        <_>
          10 2 8 2 2.</_></rects>
      <tilted>0</tilted></_>
    <_>
      <rects>
        <_>
          11 4 2 6 -1.</_>
        <_>
          11 7 2 3 2.</_></rects>
      <tilted>0</tilted></_>
    <_>
      <rects>
        <_>
          11 18 11 6 -1.</_>
        <_>
          11 21 11 3 2.</_></rects>
      <tilted>0</tilted></_>
    <_>
      <rects>
        <_>
          12 2 12 21 -1.</_>
        <_>
          18 2 6 21 2.</_></rects>
      <tilted>0</tilted></_>
    <_>
      <rects>
        <_>
          13 12 7 9 -1.</_>
        <_>
          13 15 7 3 3.</_></rects>
      <tilted>0</tilted></_>
    <_>
      <rects>
        <_>
          16 2 3 21 -1.</_>
        <_>
          16 9 3 7 3.</_></rects>
      <tilted>0</tilted></_>
    <_>
      <rects>
        <_>
          18 6 6 18 -1.</_>
        <_>
          21 6 3 18 2.</_></rects>
      <tilted>0</tilted></_>
    <_>
      <rects>
        <_>
          20 7 4 11 -1.</_>
        <_>
          22 7 2 11 2.</_></rects>
      <tilted>0</tilted></_></features></cascade>
</opencv_storage>
